<?xml version="1.0"?>
<opencv_storage>
<keepR type_id="opencv-haar-classifier">
  <size>
    50 50</size>
  <stages>
    <_>
      <trees>
        <_>
          <_>
            <feature>
              <rects>
                <_>
                  0 0 30 45 -1.</_>
                <_>
                  10 15 10 15 9.</_></rects>
              <tilted>0</tilted></feature>
            <threshold>0.2455969005823135</threshold>
            <left_val>-1.</left_val>
            <right_val>1.</right_val></_></_></trees>
      <stage_threshold>1.</stage_threshold>
      <parent>-1</parent>
      <next>-1</next></_>
    <_>
      <trees>
        <_>
          <_>
            <feature>
              <rects>
                <_>
                  0 8 12 22 -1.</_>
                <_>
                  0 8 6 11 2.</_>
                <_>
                  6 19 6 11 2.</_></rects>
              <tilted>0</tilted></feature>
            <threshold>0.0142316203564405</threshold>
            <left_val>-1.</left_val>
            <right_val>1.</right_val></_></_></trees>
      <stage_threshold>1.</stage_threshold>
      <parent>0</parent>
      <next>-1</next></_>
    <_>
      <trees>
        <_>
          <_>
            <feature>
              <rects>
                <_>
                  0 28 8 22 -1.</_>
                <_>
                  0 28 4 11 2.</_>
                <_>
                  4 39 4 11 2.</_></rects>
              <tilted>0</tilted></feature>
            <threshold>9.6839033067226410e-003</threshold>
            <left_val>-1.</left_val>
            <right_val>1.0000009536743164</right_val></_></_></trees>
      <stage_threshold>1.0000009536743164</stage_threshold>
      <parent>1</parent>
      <next>-1</next></_>
    <_>
      <trees>
        <_>
          <_>
            <feature>
              <rects>
                <_>
                  0 1 21 4 -1.</_>
                <_>
                  7 1 7 4 3.</_></rects>
              <tilted>0</tilted></feature>
            <threshold>3.5391980782151222e-003</threshold>
            <left_val>-1.</left_val>
            <right_val>1.0000009536743164</right_val></_></_>
        <_>
          <_>
            <feature>
              <rects>
                <_>
                  0 3 18 6 -1.</_>
                <_>
                  6 5 6 2 9.</_></rects>
              <tilted>0</tilted></feature>
            <threshold>9.7074697259813547e-004</threshold>
            <left_val>-1.</left_val>
            <right_val>1.0000020265579224</right_val></_></_>
        <_>
          <_>
            <feature>
              <rects>
                <_>
                  0 0 2 1 -1.</_>
                <_>
                  1 0 1 1 2.</_></rects>
              <tilted>0</tilted></feature>
            <threshold>0.</threshold>
            <left_val>0.</left_val>
            <right_val>-1.</right_val></_></_>
        <_>
          <_>
            <feature>
              <rects>
                <_>
                  0 0 3 6 -1.</_>
                <_>
                  1 2 1 2 9.</_></rects>
              <tilted>0</tilted></feature>
            <threshold>-1.1249200179008767e-004</threshold>
            <left_val>1.</left_val>
            <right_val>-1.</right_val></_></_></trees>
      <stage_threshold>1.0000029802322388</stage_threshold>
      <parent>2</parent>
      <next>-1</next></_>
    <_>
      <trees>
        <_>
          <_>
            <feature>
              <rects>
                <_>
                  0 0 21 28 -1.</_>
                <_>
                  0 7 21 14 2.</_></rects>
              <tilted>0</tilted></feature>
            <threshold>-0.1056220978498459</threshold>
            <left_val>1.</left_val>
            <right_val>-1.</right_val></_></_></trees>
      <stage_threshold>1.</stage_threshold>
      <parent>3</parent>
      <next>-1</next></_></stages></keepR>
</opencv_storage>
