<?xml version="1.0"?>
<opencv_storage>
<harr_people3 type_id="opencv-haar-classifier">
  <size>
    50 50</size>
  <stages>
    <_>
      <trees>
        <_>
          <_>
            <feature>
              <rects>
                <_>
                  0 0 4 6 -1.</_>
                <_>
                  1 0 2 6 2.</_></rects>
              <tilted>0</tilted></feature>
            <threshold>-1.0547239799052477e-004</threshold>
            <left_val>-1.</left_val>
            <right_val>0.9999998211860657</right_val></_></_></trees>
      <stage_threshold>0.9999998211860657</stage_threshold>
      <parent>-1</parent>
      <next>-1</next></_>
    <_>
      <trees>
        <_>
          <_>
            <feature>
              <rects>
                <_>
                  0 0 6 14 -1.</_>
                <_>
                  0 0 3 7 2.</_>
                <_>
                  3 7 3 7 2.</_></rects>
              <tilted>0</tilted></feature>
            <threshold>-1.0888569522649050e-003</threshold>
            <left_val>-1.</left_val>
            <right_val>0.9999998211860657</right_val></_></_></trees>
      <stage_threshold>0.9999998211860657</stage_threshold>
      <parent>0</parent>
      <next>-1</next></_>
    <_>
      <trees>
        <_>
          <_>
            <feature>
              <rects>
                <_>
                  0 0 18 4 -1.</_>
                <_>
                  0 1 18 2 2.</_></rects>
              <tilted>0</tilted></feature>
            <threshold>2.7399979444453493e-005</threshold>
            <left_val>1.</left_val>
            <right_val>-0.9999998211860657</right_val></_></_></trees>
      <stage_threshold>1.</stage_threshold>
      <parent>1</parent>
      <next>-1</next></_>
    <_>
      <trees>
        <_>
          <_>
            <feature>
              <rects>
                <_>
                  0 0 14 4 -1.</_>
                <_>
                  0 1 14 2 2.</_></rects>
              <tilted>0</tilted></feature>
            <threshold>-6.5567699493840337e-005</threshold>
            <left_val>-1.</left_val>
            <right_val>0.9999998211860657</right_val></_></_></trees>
      <stage_threshold>0.9999998211860657</stage_threshold>
      <parent>2</parent>
      <next>-1</next></_>
    <_>
      <trees>
        <_>
          <_>
            <feature>
              <rects>
                <_>
                  0 0 3 1 -1.</_>
                <_>
                  1 0 1 1 3.</_></rects>
              <tilted>0</tilted></feature>
            <threshold>1.3062780453765299e-005</threshold>
            <left_val>1.</left_val>
            <right_val>-0.9999998211860657</right_val></_></_></trees>
      <stage_threshold>1.</stage_threshold>
      <parent>3</parent>
      <next>-1</next></_>
    <_>
      <trees>
        <_>
          <_>
            <feature>
              <rects>
                <_>
                  0 0 2 12 -1.</_>
                <_>
                  0 0 1 6 2.</_>
                <_>
                  1 6 1 6 2.</_></rects>
              <tilted>0</tilted></feature>
            <threshold>1.3280319762998261e-005</threshold>
            <left_val>1.</left_val>
            <right_val>-0.9999998211860657</right_val></_></_></trees>
      <stage_threshold>1.</stage_threshold>
      <parent>4</parent>
      <next>-1</next></_>
    <_>
      <trees>
        <_>
          <_>
            <feature>
              <rects>
                <_>
                  0 0 20 8 -1.</_>
                <_>
                  0 2 20 4 2.</_></rects>
              <tilted>0</tilted></feature>
            <threshold>1.2191620189696550e-003</threshold>
            <left_val>-1.</left_val>
            <right_val>0.9999998211860657</right_val></_></_></trees>
      <stage_threshold>0.9999998211860657</stage_threshold>
      <parent>5</parent>
      <next>-1</next></_>
    <_>
      <trees>
        <_>
          <_>
            <feature>
              <rects>
                <_>
                  0 0 25 2 -1.</_>
                <_>
                  0 1 25 1 2.</_></rects>
              <tilted>0</tilted></feature>
            <threshold>-3.7195210461504757e-004</threshold>
            <left_val>1.</left_val>
            <right_val>-0.9999998211860657</right_val></_></_></trees>
      <stage_threshold>1.</stage_threshold>
      <parent>6</parent>
      <next>-1</next></_>
    <_>
      <trees>
        <_>
          <_>
            <feature>
              <rects>
                <_>
                  0 0 6 6 -1.</_>
                <_>
                  2 2 2 2 9.</_></rects>
              <tilted>0</tilted></feature>
            <threshold>1.3738129928242415e-004</threshold>
            <left_val>1.</left_val>
            <right_val>-0.9999998211860657</right_val></_></_></trees>
      <stage_threshold>1.</stage_threshold>
      <parent>7</parent>
      <next>-1</next></_>
    <_>
      <trees>
        <_>
          <_>
            <feature>
              <rects>
                <_>
                  0 0 3 9 -1.</_>
                <_>
                  1 3 1 3 9.</_></rects>
              <tilted>0</tilted></feature>
            <threshold>1.2931910168845206e-004</threshold>
            <left_val>1.</left_val>
            <right_val>-0.9999998211860657</right_val></_></_></trees>
      <stage_threshold>1.</stage_threshold>
      <parent>8</parent>
      <next>-1</next></_>
    <_>
      <trees>
        <_>
          <_>
            <feature>
              <rects>
                <_>
                  0 0 24 8 -1.</_>
                <_>
                  0 2 24 4 2.</_></rects>
              <tilted>0</tilted></feature>
            <threshold>5.4776819888502359e-004</threshold>
            <left_val>1.</left_val>
            <right_val>-0.9999998211860657</right_val></_></_></trees>
      <stage_threshold>1.</stage_threshold>
      <parent>9</parent>
      <next>-1</next></_></stages></harr_people3>
</opencv_storage>
